digraph Tree {
node [shape=box, style="filled, rounded", color="black", fontname="helvetica"] ;
edge [fontname="helvetica"] ;
0 [label="node #0\nAge <= 44.5\ngini = 0.481\nsamples = 1000\nvalue = [598, 402]\nclass = No", fillcolor="#f6d6be"] ;
1 [label="node #1\nAnnualSalary <= 90750.0\ngini = 0.302\nsamples = 664\nvalue = [541, 123]\nclass = No", fillcolor="#eb9e66"] ;
0 -> 1 [labeldistance=2.5, labelangle=45, headlabel="True"] ;
2 [label="node #2\nAnnualSalary <= 69750.0\ngini = 0.081\nsamples = 545\nvalue = [522, 23]\nclass = No", fillcolor="#e68742"] ;
1 -> 2 ;
3 [label="node #3\ngini = 0.0\nsamples = 322\nvalue = [322, 0]\nclass = No", fillcolor="#e58139"] ;
2 -> 3 ;
4 [label="node #4\nAge <= 36.5\ngini = 0.185\nsamples = 223\nvalue = [200, 23]\nclass = No", fillcolor="#e88f50"] ;
2 -> 4 ;
5 [label="node #5\ngini = 0.0\nsamples = 114\nvalue = [114, 0]\nclass = No", fillcolor="#e58139"] ;
4 -> 5 ;
6 [label="node #6\nAnnualSalary <= 84750.0\ngini = 0.333\nsamples = 109\nvalue = [86, 23]\nclass = No", fillcolor="#eca36e"] ;
4 -> 6 ;
7 [label="node #7\nUser ID <= 127.5\ngini = 0.296\nsamples = 105\nvalue = [86, 19]\nclass = No", fillcolor="#eb9d65"] ;
6 -> 7 ;
8 [label="node #8\nUser ID <= 115.0\ngini = 0.498\nsamples = 15\nvalue = [8, 7]\nclass = No", fillcolor="#fcefe6"] ;
7 -> 8 ;
9 [label="node #9\nUser ID <= 74.0\ngini = 0.42\nsamples = 10\nvalue = [7, 3]\nclass = No", fillcolor="#f0b78e"] ;
8 -> 9 ;
10 [label="node #10\nAnnualSalary <= 80250.0\ngini = 0.48\nsamples = 5\nvalue = [2, 3]\nclass = Yes", fillcolor="#bddef6"] ;
9 -> 10 ;
11 [label="node #11\nAnnualSalary <= 73750.0\ngini = 0.444\nsamples = 3\nvalue = [2, 1]\nclass = No", fillcolor="#f2c09c"] ;
10 -> 11 ;
12 [label="node #12\ngini = 0.0\nsamples = 1\nvalue = [0, 1]\nclass = Yes", fillcolor="#399de5"] ;
11 -> 12 ;
13 [label="node #13\ngini = 0.0\nsamples = 2\nvalue = [2, 0]\nclass = No", fillcolor="#e58139"] ;
11 -> 13 ;
14 [label="node #14\ngini = 0.0\nsamples = 2\nvalue = [0, 2]\nclass = Yes", fillcolor="#399de5"] ;
10 -> 14 ;
15 [label="node #15\ngini = 0.0\nsamples = 5\nvalue = [5, 0]\nclass = No", fillcolor="#e58139"] ;
9 -> 15 ;
16 [label="node #16\nAnnualSalary <= 72000.0\ngini = 0.32\nsamples = 5\nvalue = [1, 4]\nclass = Yes", fillcolor="#6ab6ec"] ;
8 -> 16 ;
17 [label="node #17\ngini = 0.0\nsamples = 1\nvalue = [1, 0]\nclass = No", fillcolor="#e58139"] ;
16 -> 17 ;
18 [label="node #18\ngini = 0.0\nsamples = 4\nvalue = [0, 4]\nclass = Yes", fillcolor="#399de5"] ;
16 -> 18 ;
19 [label="node #19\nUser ID <= 696.0\ngini = 0.231\nsamples = 90\nvalue = [78, 12]\nclass = No", fillcolor="#e99457"] ;
7 -> 19 ;
20 [label="node #20\nAge <= 37.5\ngini = 0.075\nsamples = 51\nvalue = [49, 2]\nclass = No", fillcolor="#e68641"] ;
19 -> 20 ;
21 [label="node #21\nAnnualSalary <= 77500.0\ngini = 0.278\nsamples = 6\nvalue = [5, 1]\nclass = No", fillcolor="#ea9a61"] ;
20 -> 21 ;
22 [label="node #22\ngini = 0.0\nsamples = 4\nvalue = [4, 0]\nclass = No", fillcolor="#e58139"] ;
21 -> 22 ;
23 [label="node #23\nUser ID <= 290.5\ngini = 0.5\nsamples = 2\nvalue = [1, 1]\nclass = No", fillcolor="#ffffff"] ;
21 -> 23 ;
24 [label="node #24\ngini = 0.0\nsamples = 1\nvalue = [1, 0]\nclass = No", fillcolor="#e58139"] ;
23 -> 24 ;
25 [label="node #25\ngini = 0.0\nsamples = 1\nvalue = [0, 1]\nclass = Yes", fillcolor="#399de5"] ;
23 -> 25 ;
26 [label="node #26\nAge <= 42.5\ngini = 0.043\nsamples = 45\nvalue = [44, 1]\nclass = No", fillcolor="#e6843d"] ;
20 -> 26 ;
27 [label="node #27\ngini = 0.0\nsamples = 37\nvalue = [37, 0]\nclass = No", fillcolor="#e58139"] ;
26 -> 27 ;
28 [label="node #28\nGender <= 0.5\ngini = 0.219\nsamples = 8\nvalue = [7, 1]\nclass = No", fillcolor="#e99355"] ;
26 -> 28 ;
29 [label="node #29\ngini = 0.0\nsamples = 7\nvalue = [7, 0]\nclass = No", fillcolor="#e58139"] ;
28 -> 29 ;
30 [label="node #30\ngini = 0.0\nsamples = 1\nvalue = [0, 1]\nclass = Yes", fillcolor="#399de5"] ;
28 -> 30 ;
31 [label="node #31\nUser ID <= 713.5\ngini = 0.381\nsamples = 39\nvalue = [29, 10]\nclass = No", fillcolor="#eeac7d"] ;
19 -> 31 ;
32 [label="node #32\ngini = 0.0\nsamples = 2\nvalue = [0, 2]\nclass = Yes", fillcolor="#399de5"] ;
31 -> 32 ;
33 [label="node #33\nAge <= 38.5\ngini = 0.339\nsamples = 37\nvalue = [29, 8]\nclass = No", fillcolor="#eca470"] ;
31 -> 33 ;
34 [label="node #34\nAnnualSalary <= 77750.0\ngini = 0.5\nsamples = 10\nvalue = [5, 5]\nclass = No", fillcolor="#ffffff"] ;
33 -> 34 ;
35 [label="node #35\nAnnualSalary <= 71750.0\ngini = 0.408\nsamples = 7\nvalue = [5, 2]\nclass = No", fillcolor="#efb388"] ;
34 -> 35 ;
36 [label="node #36\nUser ID <= 801.5\ngini = 0.444\nsamples = 3\nvalue = [1, 2]\nclass = Yes", fillcolor="#9ccef2"] ;
35 -> 36 ;
37 [label="node #37\ngini = 0.0\nsamples = 1\nvalue = [0, 1]\nclass = Yes", fillcolor="#399de5"] ;
36 -> 37 ;
38 [label="node #38\nAnnualSalary <= 70500.0\ngini = 0.5\nsamples = 2\nvalue = [1, 1]\nclass = No", fillcolor="#ffffff"] ;
36 -> 38 ;
39 [label="node #39\ngini = 0.0\nsamples = 1\nvalue = [0, 1]\nclass = Yes", fillcolor="#399de5"] ;
38 -> 39 ;
40 [label="node #40\ngini = 0.0\nsamples = 1\nvalue = [1, 0]\nclass = No", fillcolor="#e58139"] ;
38 -> 40 ;
41 [label="node #41\ngini = 0.0\nsamples = 4\nvalue = [4, 0]\nclass = No", fillcolor="#e58139"] ;
35 -> 41 ;
42 [label="node #42\ngini = 0.0\nsamples = 3\nvalue = [0, 3]\nclass = Yes", fillcolor="#399de5"] ;
34 -> 42 ;
43 [label="node #43\nUser ID <= 964.5\ngini = 0.198\nsamples = 27\nvalue = [24, 3]\nclass = No", fillcolor="#e89152"] ;
33 -> 43 ;
44 [label="node #44\nAnnualSalary <= 79750.0\ngini = 0.08\nsamples = 24\nvalue = [23, 1]\nclass = No", fillcolor="#e68642"] ;
43 -> 44 ;
45 [label="node #45\ngini = 0.0\nsamples = 17\nvalue = [17, 0]\nclass = No", fillcolor="#e58139"] ;
44 -> 45 ;
46 [label="node #46\nAnnualSalary <= 80250.0\ngini = 0.245\nsamples = 7\nvalue = [6, 1]\nclass = No", fillcolor="#e9965a"] ;
44 -> 46 ;
47 [label="node #47\nAge <= 41.5\ngini = 0.5\nsamples = 2\nvalue = [1, 1]\nclass = No", fillcolor="#ffffff"] ;
46 -> 47 ;
48 [label="node #48\ngini = 0.0\nsamples = 1\nvalue = [1, 0]\nclass = No", fillcolor="#e58139"] ;
47 -> 48 ;
49 [label="node #49\ngini = 0.0\nsamples = 1\nvalue = [0, 1]\nclass = Yes", fillcolor="#399de5"] ;
47 -> 49 ;
50 [label="node #50\ngini = 0.0\nsamples = 5\nvalue = [5, 0]\nclass = No", fillcolor="#e58139"] ;
46 -> 50 ;
51 [label="node #51\nAge <= 40.5\ngini = 0.444\nsamples = 3\nvalue = [1, 2]\nclass = Yes", fillcolor="#9ccef2"] ;
43 -> 51 ;
52 [label="node #52\ngini = 0.0\nsamples = 2\nvalue = [0, 2]\nclass = Yes", fillcolor="#399de5"] ;
51 -> 52 ;
53 [label="node #53\ngini = 0.0\nsamples = 1\nvalue = [1, 0]\nclass = No", fillcolor="#e58139"] ;
51 -> 53 ;
54 [label="node #54\ngini = 0.0\nsamples = 4\nvalue = [0, 4]\nclass = Yes", fillcolor="#399de5"] ;
6 -> 54 ;
55 [label="node #55\nAnnualSalary <= 119750.0\ngini = 0.268\nsamples = 119\nvalue = [19, 100]\nclass = Yes", fillcolor="#5fb0ea"] ;
1 -> 55 ;
56 [label="node #56\nAnnualSalary <= 109000.0\ngini = 0.398\nsamples = 62\nvalue = [17, 45]\nclass = Yes", fillcolor="#84c2ef"] ;
55 -> 56 ;
57 [label="node #57\nAge <= 26.5\ngini = 0.165\nsamples = 33\nvalue = [3, 30]\nclass = Yes", fillcolor="#4da7e8"] ;
56 -> 57 ;
58 [label="node #58\ngini = 0.0\nsamples = 1\nvalue = [1, 0]\nclass = No", fillcolor="#e58139"] ;
57 -> 58 ;
59 [label="node #59\nAge <= 35.5\ngini = 0.117\nsamples = 32\nvalue = [2, 30]\nclass = Yes", fillcolor="#46a4e7"] ;
57 -> 59 ;
60 [label="node #60\nUser ID <= 473.0\ngini = 0.32\nsamples = 10\nvalue = [2, 8]\nclass = Yes", fillcolor="#6ab6ec"] ;
59 -> 60 ;
61 [label="node #61\nUser ID <= 219.5\ngini = 0.48\nsamples = 5\nvalue = [2, 3]\nclass = Yes", fillcolor="#bddef6"] ;
60 -> 61 ;
62 [label="node #62\ngini = 0.0\nsamples = 2\nvalue = [0, 2]\nclass = Yes", fillcolor="#399de5"] ;
61 -> 62 ;
63 [label="node #63\nAnnualSalary <= 108250.0\ngini = 0.444\nsamples = 3\nvalue = [2, 1]\nclass = No", fillcolor="#f2c09c"] ;
61 -> 63 ;
64 [label="node #64\ngini = 0.0\nsamples = 2\nvalue = [2, 0]\nclass = No", fillcolor="#e58139"] ;
63 -> 64 ;
65 [label="node #65\ngini = 0.0\nsamples = 1\nvalue = [0, 1]\nclass = Yes", fillcolor="#399de5"] ;
63 -> 65 ;
66 [label="node #66\ngini = 0.0\nsamples = 5\nvalue = [0, 5]\nclass = Yes", fillcolor="#399de5"] ;
60 -> 66 ;
67 [label="node #67\ngini = 0.0\nsamples = 22\nvalue = [0, 22]\nclass = Yes", fillcolor="#399de5"] ;
59 -> 67 ;
68 [label="node #68\nAge <= 42.0\ngini = 0.499\nsamples = 29\nvalue = [14, 15]\nclass = Yes", fillcolor="#f2f8fd"] ;
56 -> 68 ;
69 [label="node #69\nAge <= 30.5\ngini = 0.493\nsamples = 25\nvalue = [14, 11]\nclass = No", fillcolor="#f9e4d5"] ;
68 -> 69 ;
70 [label="node #70\ngini = 0.0\nsamples = 3\nvalue = [3, 0]\nclass = No", fillcolor="#e58139"] ;
69 -> 70 ;
71 [label="node #71\nAnnualSalary <= 117750.0\ngini = 0.5\nsamples = 22\nvalue = [11, 11]\nclass = No", fillcolor="#ffffff"] ;
69 -> 71 ;
72 [label="node #72\nUser ID <= 707.5\ngini = 0.469\nsamples = 16\nvalue = [10, 6]\nclass = No", fillcolor="#f5cdb0"] ;
71 -> 72 ;
73 [label="node #73\nUser ID <= 303.0\ngini = 0.375\nsamples = 12\nvalue = [9, 3]\nclass = No", fillcolor="#eeab7b"] ;
72 -> 73 ;
74 [label="node #74\nAnnualSalary <= 110750.0\ngini = 0.5\nsamples = 6\nvalue = [3, 3]\nclass = No", fillcolor="#ffffff"] ;
73 -> 74 ;
75 [label="node #75\ngini = 0.0\nsamples = 1\nvalue = [1, 0]\nclass = No", fillcolor="#e58139"] ;
74 -> 75 ;
76 [label="node #76\nGender <= 0.5\ngini = 0.48\nsamples = 5\nvalue = [2, 3]\nclass = Yes", fillcolor="#bddef6"] ;
74 -> 76 ;
77 [label="node #77\nAge <= 36.5\ngini = 0.444\nsamples = 3\nvalue = [2, 1]\nclass = No", fillcolor="#f2c09c"] ;
76 -> 77 ;
78 [label="node #78\ngini = 0.0\nsamples = 1\nvalue = [1, 0]\nclass = No", fillcolor="#e58139"] ;
77 -> 78 ;
79 [label="node #79\nAge <= 40.0\ngini = 0.5\nsamples = 2\nvalue = [1, 1]\nclass = No", fillcolor="#ffffff"] ;
77 -> 79 ;
80 [label="node #80\ngini = 0.0\nsamples = 1\nvalue = [0, 1]\nclass = Yes", fillcolor="#399de5"] ;
79 -> 80 ;
81 [label="node #81\ngini = 0.0\nsamples = 1\nvalue = [1, 0]\nclass = No", fillcolor="#e58139"] ;
79 -> 81 ;
82 [label="node #82\ngini = 0.0\nsamples = 2\nvalue = [0, 2]\nclass = Yes", fillcolor="#399de5"] ;
76 -> 82 ;
83 [label="node #83\ngini = 0.0\nsamples = 6\nvalue = [6, 0]\nclass = No", fillcolor="#e58139"] ;
73 -> 83 ;
84 [label="node #84\nUser ID <= 837.5\ngini = 0.375\nsamples = 4\nvalue = [1, 3]\nclass = Yes", fillcolor="#7bbeee"] ;
72 -> 84 ;
85 [label="node #85\ngini = 0.0\nsamples = 2\nvalue = [0, 2]\nclass = Yes", fillcolor="#399de5"] ;
84 -> 85 ;
86 [label="node #86\nUser ID <= 861.0\ngini = 0.5\nsamples = 2\nvalue = [1, 1]\nclass = No", fillcolor="#ffffff"] ;
84 -> 86 ;
87 [label="node #87\ngini = 0.0\nsamples = 1\nvalue = [1, 0]\nclass = No", fillcolor="#e58139"] ;
86 -> 87 ;
88 [label="node #88\ngini = 0.0\nsamples = 1\nvalue = [0, 1]\nclass = Yes", fillcolor="#399de5"] ;
86 -> 88 ;
89 [label="node #89\nUser ID <= 290.0\ngini = 0.278\nsamples = 6\nvalue = [1, 5]\nclass = Yes", fillcolor="#61b1ea"] ;
71 -> 89 ;
90 [label="node #90\nUser ID <= 260.0\ngini = 0.5\nsamples = 2\nvalue = [1, 1]\nclass = No", fillcolor="#ffffff"] ;
89 -> 90 ;
91 [label="node #91\ngini = 0.0\nsamples = 1\nvalue = [0, 1]\nclass = Yes", fillcolor="#399de5"] ;
90 -> 91 ;
92 [label="node #92\ngini = 0.0\nsamples = 1\nvalue = [1, 0]\nclass = No", fillcolor="#e58139"] ;
90 -> 92 ;
93 [label="node #93\ngini = 0.0\nsamples = 4\nvalue = [0, 4]\nclass = Yes", fillcolor="#399de5"] ;
89 -> 93 ;
94 [label="node #94\ngini = 0.0\nsamples = 4\nvalue = [0, 4]\nclass = Yes", fillcolor="#399de5"] ;
68 -> 94 ;
95 [label="node #95\nAge <= 42.5\ngini = 0.068\nsamples = 57\nvalue = [2, 55]\nclass = Yes", fillcolor="#40a1e6"] ;
55 -> 95 ;
96 [label="node #96\ngini = 0.0\nsamples = 50\nvalue = [0, 50]\nclass = Yes", fillcolor="#399de5"] ;
95 -> 96 ;
97 [label="node #97\nGender <= 0.5\ngini = 0.408\nsamples = 7\nvalue = [2, 5]\nclass = Yes", fillcolor="#88c4ef"] ;
95 -> 97 ;
98 [label="node #98\nAnnualSalary <= 136750.0\ngini = 0.5\nsamples = 4\nvalue = [2, 2]\nclass = No", fillcolor="#ffffff"] ;
97 -> 98 ;
99 [label="node #99\ngini = 0.0\nsamples = 2\nvalue = [2, 0]\nclass = No", fillcolor="#e58139"] ;
98 -> 99 ;
100 [label="node #100\ngini = 0.0\nsamples = 2\nvalue = [0, 2]\nclass = Yes", fillcolor="#399de5"] ;
98 -> 100 ;
101 [label="node #101\ngini = 0.0\nsamples = 3\nvalue = [0, 3]\nclass = Yes", fillcolor="#399de5"] ;
97 -> 101 ;
102 [label="node #102\nAge <= 47.5\ngini = 0.282\nsamples = 336\nvalue = [57, 279]\nclass = Yes", fillcolor="#61b1ea"] ;
0 -> 102 [labeldistance=2.5, labelangle=-45, headlabel="False"] ;
103 [label="node #103\nAnnualSalary <= 37250.0\ngini = 0.45\nsamples = 73\nvalue = [25, 48]\nclass = Yes", fillcolor="#a0d0f3"] ;
102 -> 103 ;
104 [label="node #104\nGender <= 0.5\ngini = 0.172\nsamples = 21\nvalue = [2, 19]\nclass = Yes", fillcolor="#4ea7e8"] ;
103 -> 104 ;
105 [label="node #105\nAnnualSalary <= 26750.0\ngini = 0.408\nsamples = 7\nvalue = [2, 5]\nclass = Yes", fillcolor="#88c4ef"] ;
104 -> 105 ;
106 [label="node #106\nAge <= 45.5\ngini = 0.5\nsamples = 4\nvalue = [2, 2]\nclass = No", fillcolor="#ffffff"] ;
105 -> 106 ;
107 [label="node #107\ngini = 0.0\nsamples = 1\nvalue = [0, 1]\nclass = Yes", fillcolor="#399de5"] ;
106 -> 107 ;
108 [label="node #108\nUser ID <= 208.0\ngini = 0.444\nsamples = 3\nvalue = [2, 1]\nclass = No", fillcolor="#f2c09c"] ;
106 -> 108 ;
109 [label="node #109\ngini = 0.0\nsamples = 1\nvalue = [0, 1]\nclass = Yes", fillcolor="#399de5"] ;
108 -> 109 ;
110 [label="node #110\ngini = 0.0\nsamples = 2\nvalue = [2, 0]\nclass = No", fillcolor="#e58139"] ;
108 -> 110 ;
111 [label="node #111\ngini = 0.0\nsamples = 3\nvalue = [0, 3]\nclass = Yes", fillcolor="#399de5"] ;
105 -> 111 ;
112 [label="node #112\ngini = 0.0\nsamples = 14\nvalue = [0, 14]\nclass = Yes", fillcolor="#399de5"] ;
104 -> 112 ;
113 [label="node #113\nAnnualSalary <= 101250.0\ngini = 0.493\nsamples = 52\nvalue = [23, 29]\nclass = Yes", fillcolor="#d6ebfa"] ;
103 -> 113 ;
114 [label="node #114\nUser ID <= 608.0\ngini = 0.475\nsamples = 36\nvalue = [22, 14]\nclass = No", fillcolor="#f6d1b7"] ;
113 -> 114 ;
115 [label="node #115\nAge <= 45.5\ngini = 0.351\nsamples = 22\nvalue = [17, 5]\nclass = No", fillcolor="#eda673"] ;
114 -> 115 ;
116 [label="node #116\ngini = 0.0\nsamples = 9\nvalue = [9, 0]\nclass = No", fillcolor="#e58139"] ;
115 -> 116 ;
117 [label="node #117\nAnnualSalary <= 55750.0\ngini = 0.473\nsamples = 13\nvalue = [8, 5]\nclass = No", fillcolor="#f5d0b5"] ;
115 -> 117 ;
118 [label="node #118\nAnnualSalary <= 48000.0\ngini = 0.48\nsamples = 5\nvalue = [2, 3]\nclass = Yes", fillcolor="#bddef6"] ;
117 -> 118 ;
119 [label="node #119\ngini = 0.0\nsamples = 2\nvalue = [2, 0]\nclass = No", fillcolor="#e58139"] ;
118 -> 119 ;
120 [label="node #120\ngini = 0.0\nsamples = 3\nvalue = [0, 3]\nclass = Yes", fillcolor="#399de5"] ;
118 -> 120 ;
121 [label="node #121\nGender <= 0.5\ngini = 0.375\nsamples = 8\nvalue = [6, 2]\nclass = No", fillcolor="#eeab7b"] ;
117 -> 121 ;
122 [label="node #122\ngini = 0.0\nsamples = 5\nvalue = [5, 0]\nclass = No", fillcolor="#e58139"] ;
121 -> 122 ;
123 [label="node #123\nUser ID <= 77.0\ngini = 0.444\nsamples = 3\nvalue = [1, 2]\nclass = Yes", fillcolor="#9ccef2"] ;
121 -> 123 ;
124 [label="node #124\ngini = 0.0\nsamples = 1\nvalue = [1, 0]\nclass = No", fillcolor="#e58139"] ;
123 -> 124 ;
125 [label="node #125\ngini = 0.0\nsamples = 2\nvalue = [0, 2]\nclass = Yes", fillcolor="#399de5"] ;
123 -> 125 ;
126 [label="node #126\nGender <= 0.5\ngini = 0.459\nsamples = 14\nvalue = [5, 9]\nclass = Yes", fillcolor="#a7d3f3"] ;
114 -> 126 ;
127 [label="node #127\nAge <= 46.5\ngini = 0.245\nsamples = 7\nvalue = [1, 6]\nclass = Yes", fillcolor="#5aade9"] ;
126 -> 127 ;
128 [label="node #128\ngini = 0.0\nsamples = 5\nvalue = [0, 5]\nclass = Yes", fillcolor="#399de5"] ;
127 -> 128 ;
129 [label="node #129\nUser ID <= 670.5\ngini = 0.5\nsamples = 2\nvalue = [1, 1]\nclass = No", fillcolor="#ffffff"] ;
127 -> 129 ;
130 [label="node #130\ngini = 0.0\nsamples = 1\nvalue = [0, 1]\nclass = Yes", fillcolor="#399de5"] ;
129 -> 130 ;
131 [label="node #131\ngini = 0.0\nsamples = 1\nvalue = [1, 0]\nclass = No", fillcolor="#e58139"] ;
129 -> 131 ;
132 [label="node #132\nAnnualSalary <= 67250.0\ngini = 0.49\nsamples = 7\nvalue = [4, 3]\nclass = No", fillcolor="#f8e0ce"] ;
126 -> 132 ;
133 [label="node #133\ngini = 0.0\nsamples = 2\nvalue = [2, 0]\nclass = No", fillcolor="#e58139"] ;
132 -> 133 ;
134 [label="node #134\nAge <= 46.5\ngini = 0.48\nsamples = 5\nvalue = [2, 3]\nclass = Yes", fillcolor="#bddef6"] ;
132 -> 134 ;
135 [label="node #135\nAnnualSalary <= 77250.0\ngini = 0.5\nsamples = 4\nvalue = [2, 2]\nclass = No", fillcolor="#ffffff"] ;
134 -> 135 ;
136 [label="node #136\ngini = 0.0\nsamples = 1\nvalue = [0, 1]\nclass = Yes", fillcolor="#399de5"] ;
135 -> 136 ;
137 [label="node #137\nAnnualSalary <= 79750.0\ngini = 0.444\nsamples = 3\nvalue = [2, 1]\nclass = No", fillcolor="#f2c09c"] ;
135 -> 137 ;
138 [label="node #138\nUser ID <= 933.0\ngini = 0.5\nsamples = 2\nvalue = [1, 1]\nclass = No", fillcolor="#ffffff"] ;
137 -> 138 ;
139 [label="node #139\ngini = 0.0\nsamples = 1\nvalue = [0, 1]\nclass = Yes", fillcolor="#399de5"] ;
138 -> 139 ;
140 [label="node #140\ngini = 0.0\nsamples = 1\nvalue = [1, 0]\nclass = No", fillcolor="#e58139"] ;
138 -> 140 ;
141 [label="node #141\ngini = 0.0\nsamples = 1\nvalue = [1, 0]\nclass = No", fillcolor="#e58139"] ;
137 -> 141 ;
142 [label="node #142\ngini = 0.0\nsamples = 1\nvalue = [0, 1]\nclass = Yes", fillcolor="#399de5"] ;
134 -> 142 ;
143 [label="node #143\nAnnualSalary <= 134000.0\ngini = 0.117\nsamples = 16\nvalue = [1, 15]\nclass = Yes", fillcolor="#46a4e7"] ;
113 -> 143 ;
144 [label="node #144\ngini = 0.0\nsamples = 11\nvalue = [0, 11]\nclass = Yes", fillcolor="#399de5"] ;
143 -> 144 ;
145 [label="node #145\nAnnualSalary <= 138000.0\ngini = 0.32\nsamples = 5\nvalue = [1, 4]\nclass = Yes", fillcolor="#6ab6ec"] ;
143 -> 145 ;
146 [label="node #146\ngini = 0.0\nsamples = 1\nvalue = [1, 0]\nclass = No", fillcolor="#e58139"] ;
145 -> 146 ;
147 [label="node #147\ngini = 0.0\nsamples = 4\nvalue = [0, 4]\nclass = Yes", fillcolor="#399de5"] ;
145 -> 147 ;
148 [label="node #148\nAnnualSalary <= 41750.0\ngini = 0.214\nsamples = 263\nvalue = [32, 231]\nclass = Yes", fillcolor="#54abe9"] ;
102 -> 148 ;
149 [label="node #149\nAnnualSalary <= 25000.0\ngini = 0.026\nsamples = 77\nvalue = [1, 76]\nclass = Yes", fillcolor="#3c9ee5"] ;
148 -> 149 ;
150 [label="node #150\nAge <= 49.5\ngini = 0.142\nsamples = 13\nvalue = [1, 12]\nclass = Yes", fillcolor="#49a5e7"] ;
149 -> 150 ;
151 [label="node #151\nAge <= 48.5\ngini = 0.444\nsamples = 3\nvalue = [1, 2]\nclass = Yes", fillcolor="#9ccef2"] ;
150 -> 151 ;
152 [label="node #152\ngini = 0.0\nsamples = 2\nvalue = [0, 2]\nclass = Yes", fillcolor="#399de5"] ;
151 -> 152 ;
153 [label="node #153\ngini = 0.0\nsamples = 1\nvalue = [1, 0]\nclass = No", fillcolor="#e58139"] ;
151 -> 153 ;
154 [label="node #154\ngini = 0.0\nsamples = 10\nvalue = [0, 10]\nclass = Yes", fillcolor="#399de5"] ;
150 -> 154 ;
155 [label="node #155\ngini = 0.0\nsamples = 64\nvalue = [0, 64]\nclass = Yes", fillcolor="#399de5"] ;
149 -> 155 ;
156 [label="node #156\nAnnualSalary <= 85000.0\ngini = 0.278\nsamples = 186\nvalue = [31, 155]\nclass = Yes", fillcolor="#61b1ea"] ;
148 -> 156 ;
157 [label="node #157\nAge <= 52.5\ngini = 0.427\nsamples = 68\nvalue = [21, 47]\nclass = Yes", fillcolor="#91c9f1"] ;
156 -> 157 ;
158 [label="node #158\nUser ID <= 513.5\ngini = 0.494\nsamples = 27\nvalue = [15, 12]\nclass = No", fillcolor="#fae6d7"] ;
157 -> 158 ;
159 [label="node #159\nUser ID <= 100.5\ngini = 0.48\nsamples = 15\nvalue = [6, 9]\nclass = Yes", fillcolor="#bddef6"] ;
158 -> 159 ;
160 [label="node #160\ngini = 0.0\nsamples = 2\nvalue = [2, 0]\nclass = No", fillcolor="#e58139"] ;
159 -> 160 ;
161 [label="node #161\nAnnualSalary <= 58750.0\ngini = 0.426\nsamples = 13\nvalue = [4, 9]\nclass = Yes", fillcolor="#91c9f1"] ;
159 -> 161 ;
162 [label="node #162\nUser ID <= 300.5\ngini = 0.245\nsamples = 7\nvalue = [1, 6]\nclass = Yes", fillcolor="#5aade9"] ;
161 -> 162 ;
163 [label="node #163\nAnnualSalary <= 50000.0\ngini = 0.5\nsamples = 2\nvalue = [1, 1]\nclass = No", fillcolor="#ffffff"] ;
162 -> 163 ;
164 [label="node #164\ngini = 0.0\nsamples = 1\nvalue = [1, 0]\nclass = No", fillcolor="#e58139"] ;
163 -> 164 ;
165 [label="node #165\ngini = 0.0\nsamples = 1\nvalue = [0, 1]\nclass = Yes", fillcolor="#399de5"] ;
163 -> 165 ;
166 [label="node #166\ngini = 0.0\nsamples = 5\nvalue = [0, 5]\nclass = Yes", fillcolor="#399de5"] ;
162 -> 166 ;
167 [label="node #167\nUser ID <= 336.0\ngini = 0.5\nsamples = 6\nvalue = [3, 3]\nclass = No", fillcolor="#ffffff"] ;
161 -> 167 ;
168 [label="node #168\ngini = 0.0\nsamples = 3\nvalue = [0, 3]\nclass = Yes", fillcolor="#399de5"] ;
167 -> 168 ;
169 [label="node #169\ngini = 0.0\nsamples = 3\nvalue = [3, 0]\nclass = No", fillcolor="#e58139"] ;
167 -> 169 ;
170 [label="node #170\nAnnualSalary <= 49000.0\ngini = 0.375\nsamples = 12\nvalue = [9, 3]\nclass = No", fillcolor="#eeab7b"] ;
158 -> 170 ;
171 [label="node #171\ngini = 0.0\nsamples = 4\nvalue = [4, 0]\nclass = No", fillcolor="#e58139"] ;
170 -> 171 ;
172 [label="node #172\nAnnualSalary <= 75250.0\ngini = 0.469\nsamples = 8\nvalue = [5, 3]\nclass = No", fillcolor="#f5cdb0"] ;
170 -> 172 ;
173 [label="node #173\nUser ID <= 936.5\ngini = 0.375\nsamples = 4\nvalue = [1, 3]\nclass = Yes", fillcolor="#7bbeee"] ;
172 -> 173 ;
174 [label="node #174\ngini = 0.0\nsamples = 3\nvalue = [0, 3]\nclass = Yes", fillcolor="#399de5"] ;
173 -> 174 ;
175 [label="node #175\ngini = 0.0\nsamples = 1\nvalue = [1, 0]\nclass = No", fillcolor="#e58139"] ;
173 -> 175 ;
176 [label="node #176\ngini = 0.0\nsamples = 4\nvalue = [4, 0]\nclass = No", fillcolor="#e58139"] ;
172 -> 176 ;
177 [label="node #177\nGender <= 0.5\ngini = 0.25\nsamples = 41\nvalue = [6, 35]\nclass = Yes", fillcolor="#5baee9"] ;
157 -> 177 ;
178 [label="node #178\nAnnualSalary <= 45250.0\ngini = 0.444\nsamples = 18\nvalue = [6, 12]\nclass = Yes", fillcolor="#9ccef2"] ;
177 -> 178 ;
179 [label="node #179\ngini = 0.0\nsamples = 3\nvalue = [3, 0]\nclass = No", fillcolor="#e58139"] ;
178 -> 179 ;
180 [label="node #180\nUser ID <= 927.5\ngini = 0.32\nsamples = 15\nvalue = [3, 12]\nclass = Yes", fillcolor="#6ab6ec"] ;
178 -> 180 ;
181 [label="node #181\nAnnualSalary <= 84000.0\ngini = 0.153\nsamples = 12\nvalue = [1, 11]\nclass = Yes", fillcolor="#4ba6e7"] ;
180 -> 181 ;
182 [label="node #182\ngini = 0.0\nsamples = 10\nvalue = [0, 10]\nclass = Yes", fillcolor="#399de5"] ;
181 -> 182 ;
183 [label="node #183\nAge <= 58.0\ngini = 0.5\nsamples = 2\nvalue = [1, 1]\nclass = No", fillcolor="#ffffff"] ;
181 -> 183 ;
184 [label="node #184\ngini = 0.0\nsamples = 1\nvalue = [0, 1]\nclass = Yes", fillcolor="#399de5"] ;
183 -> 184 ;
185 [label="node #185\ngini = 0.0\nsamples = 1\nvalue = [1, 0]\nclass = No", fillcolor="#e58139"] ;
183 -> 185 ;
186 [label="node #186\nAge <= 59.5\ngini = 0.444\nsamples = 3\nvalue = [2, 1]\nclass = No", fillcolor="#f2c09c"] ;
180 -> 186 ;
187 [label="node #187\ngini = 0.0\nsamples = 2\nvalue = [2, 0]\nclass = No", fillcolor="#e58139"] ;
186 -> 187 ;
188 [label="node #188\ngini = 0.0\nsamples = 1\nvalue = [0, 1]\nclass = Yes", fillcolor="#399de5"] ;
186 -> 188 ;
189 [label="node #189\ngini = 0.0\nsamples = 23\nvalue = [0, 23]\nclass = Yes", fillcolor="#399de5"] ;
177 -> 189 ;
190 [label="node #190\nUser ID <= 60.5\ngini = 0.155\nsamples = 118\nvalue = [10, 108]\nclass = Yes", fillcolor="#4ba6e7"] ;
156 -> 190 ;
191 [label="node #191\nAnnualSalary <= 132750.0\ngini = 0.444\nsamples = 9\nvalue = [3, 6]\nclass = Yes", fillcolor="#9ccef2"] ;
190 -> 191 ;
192 [label="node #192\ngini = 0.0\nsamples = 4\nvalue = [0, 4]\nclass = Yes", fillcolor="#399de5"] ;
191 -> 192 ;
193 [label="node #193\nAnnualSalary <= 144250.0\ngini = 0.48\nsamples = 5\nvalue = [3, 2]\nclass = No", fillcolor="#f6d5bd"] ;
191 -> 193 ;
194 [label="node #194\ngini = 0.0\nsamples = 3\nvalue = [3, 0]\nclass = No", fillcolor="#e58139"] ;
193 -> 194 ;
195 [label="node #195\ngini = 0.0\nsamples = 2\nvalue = [0, 2]\nclass = Yes", fillcolor="#399de5"] ;
193 -> 195 ;
196 [label="node #196\nAge <= 55.5\ngini = 0.12\nsamples = 109\nvalue = [7, 102]\nclass = Yes", fillcolor="#47a4e7"] ;
190 -> 196 ;
197 [label="node #197\nUser ID <= 518.5\ngini = 0.18\nsamples = 70\nvalue = [7, 63]\nclass = Yes", fillcolor="#4fa8e8"] ;
196 -> 197 ;
198 [label="node #198\nUser ID <= 511.5\ngini = 0.278\nsamples = 36\nvalue = [6, 30]\nclass = Yes", fillcolor="#61b1ea"] ;
197 -> 198 ;
199 [label="node #199\nAnnualSalary <= 95500.0\ngini = 0.245\nsamples = 35\nvalue = [5, 30]\nclass = Yes", fillcolor="#5aade9"] ;
198 -> 199 ;
200 [label="node #200\ngini = 0.0\nsamples = 10\nvalue = [0, 10]\nclass = Yes", fillcolor="#399de5"] ;
199 -> 200 ;
201 [label="node #201\nAnnualSalary <= 101250.0\ngini = 0.32\nsamples = 25\nvalue = [5, 20]\nclass = Yes", fillcolor="#6ab6ec"] ;
199 -> 201 ;
202 [label="node #202\ngini = 0.0\nsamples = 1\nvalue = [1, 0]\nclass = No", fillcolor="#e58139"] ;
201 -> 202 ;
203 [label="node #203\nAge <= 50.5\ngini = 0.278\nsamples = 24\nvalue = [4, 20]\nclass = Yes", fillcolor="#61b1ea"] ;
201 -> 203 ;
204 [label="node #204\ngini = 0.0\nsamples = 9\nvalue = [0, 9]\nclass = Yes", fillcolor="#399de5"] ;
203 -> 204 ;
205 [label="node #205\nUser ID <= 475.5\ngini = 0.391\nsamples = 15\nvalue = [4, 11]\nclass = Yes", fillcolor="#81c1ee"] ;
203 -> 205 ;
206 [label="node #206\nAge <= 51.5\ngini = 0.337\nsamples = 14\nvalue = [3, 11]\nclass = Yes", fillcolor="#6fb8ec"] ;
205 -> 206 ;
207 [label="node #207\ngini = 0.0\nsamples = 1\nvalue = [1, 0]\nclass = No", fillcolor="#e58139"] ;
206 -> 207 ;
208 [label="node #208\nAnnualSalary <= 138000.0\ngini = 0.26\nsamples = 13\nvalue = [2, 11]\nclass = Yes", fillcolor="#5dafea"] ;
206 -> 208 ;
209 [label="node #209\nAnnualSalary <= 132750.0\ngini = 0.375\nsamples = 8\nvalue = [2, 6]\nclass = Yes", fillcolor="#7bbeee"] ;
208 -> 209 ;
210 [label="node #210\nAnnualSalary <= 113000.0\ngini = 0.245\nsamples = 7\nvalue = [1, 6]\nclass = Yes", fillcolor="#5aade9"] ;
209 -> 210 ;
211 [label="node #211\ngini = 0.0\nsamples = 4\nvalue = [0, 4]\nclass = Yes", fillcolor="#399de5"] ;
210 -> 211 ;
212 [label="node #212\nAnnualSalary <= 120750.0\ngini = 0.444\nsamples = 3\nvalue = [1, 2]\nclass = Yes", fillcolor="#9ccef2"] ;
210 -> 212 ;
213 [label="node #213\ngini = 0.0\nsamples = 1\nvalue = [1, 0]\nclass = No", fillcolor="#e58139"] ;
212 -> 213 ;
214 [label="node #214\ngini = 0.0\nsamples = 2\nvalue = [0, 2]\nclass = Yes", fillcolor="#399de5"] ;
212 -> 214 ;
215 [label="node #215\ngini = 0.0\nsamples = 1\nvalue = [1, 0]\nclass = No", fillcolor="#e58139"] ;
209 -> 215 ;
216 [label="node #216\ngini = 0.0\nsamples = 5\nvalue = [0, 5]\nclass = Yes", fillcolor="#399de5"] ;
208 -> 216 ;
217 [label="node #217\ngini = 0.0\nsamples = 1\nvalue = [1, 0]\nclass = No", fillcolor="#e58139"] ;
205 -> 217 ;
218 [label="node #218\ngini = 0.0\nsamples = 1\nvalue = [1, 0]\nclass = No", fillcolor="#e58139"] ;
198 -> 218 ;
219 [label="node #219\nUser ID <= 824.0\ngini = 0.057\nsamples = 34\nvalue = [1, 33]\nclass = Yes", fillcolor="#3fa0e6"] ;
197 -> 219 ;
220 [label="node #220\ngini = 0.0\nsamples = 24\nvalue = [0, 24]\nclass = Yes", fillcolor="#399de5"] ;
219 -> 220 ;
221 [label="node #221\nUser ID <= 841.0\ngini = 0.18\nsamples = 10\nvalue = [1, 9]\nclass = Yes", fillcolor="#4fa8e8"] ;
219 -> 221 ;
222 [label="node #222\ngini = 0.0\nsamples = 1\nvalue = [1, 0]\nclass = No", fillcolor="#e58139"] ;
221 -> 222 ;
223 [label="node #223\ngini = 0.0\nsamples = 9\nvalue = [0, 9]\nclass = Yes", fillcolor="#399de5"] ;
221 -> 223 ;
224 [label="node #224\ngini = 0.0\nsamples = 39\nvalue = [0, 39]\nclass = Yes", fillcolor="#399de5"] ;
196 -> 224 ;
}